/*!
 * The following copyright notice may not be removed under any circumstances.
 * 
 * Copyright:
 * Copyright (c) 2009 by Tour De Force & Slobodan Jelesijevic. All rights
 * reserved.
 * 
 * Trademark:
 * Oblik Bold is a trademark of Tour De Force & Slobodan Jelesijevic.
 * 
 * Description:
 * Copyright (c) 2009 by Tour De Force & Slobodan Jelesijevic. All rights
 * reserved.
 * 
 * Manufacturer:
 * Tour De Force & Slobodan Jelesijevic
 * 
 * Designer:
 * Slobodan Jelesijevic
 * 
 * Vendor URL:
 * http://www.tourdefonts.com
 * 
 * License information:
 * http://www.tourdefonts.com/eula/TDF_eula.pdf
 */
Cufon.registerFont({"w":581,"face":{"font-family":"Oblik Bold","font-weight":700,"font-style":"oblique","font-stretch":"normal","units-per-em":"1000","panose-1":"2 0 5 3 0 0 0 2 0 4","ascent":"800","descent":"-200","x-height":"11","bbox":"-25 -910 978 242","underline-thickness":"50","underline-position":"-50","stemh":"110","stemv":"127","unicode-range":"U+0020-U+2122"},"glyphs":{" ":{"w":301},"!":{"d":"95,-700r131,0r-15,530r-100,0xm223,0r0,-126r-125,0r0,126r125,0","w":321},"\"":{"d":"65,-700r88,0r-7,214r-76,0xm242,-700r88,0r-7,214r-76,0","w":395},"#":{"d":"153,-405r-118,0r0,-89r132,0r32,-223r90,0r-33,223r144,0r32,-223r91,0r-32,223r91,0r0,89r-104,0r-16,107r120,0r0,89r-133,0r-31,223r-93,0r34,-223r-143,0r-33,223r-91,0r33,-223r-90,0r0,-89r103,0xm229,-298r142,0r16,-107r-144,0","w":617},"$":{"d":"241,-449r0,-138v-38,6,-79,24,-79,65v0,36,39,58,79,73xm241,96r0,-85v-72,0,-139,-14,-207,-36r0,-123r16,0v55,19,121,37,191,37r0,-194v-33,-10,-65,-21,-96,-36v-72,-36,-114,-102,-114,-178v0,-55,29,-106,68,-139v40,-34,91,-48,142,-52r0,-86r73,0r0,87v56,5,109,16,165,32r0,122r-18,0v-38,-15,-95,-27,-147,-32r0,163v45,15,92,29,132,57v104,71,103,238,10,312v-41,34,-91,53,-142,61r0,90r-73,0xm314,-283r0,164v42,-11,81,-35,80,-82v-1,-44,-40,-68,-80,-82","w":556},"%":{"d":"65,-532v0,-108,56,-179,146,-179v90,0,146,72,146,179v0,107,-56,178,-146,178v-90,0,-146,-71,-146,-178xm141,-531v0,56,23,110,70,110v47,0,70,-54,70,-110v0,-56,-23,-110,-70,-110v-47,0,-70,54,-70,110xm447,-167v0,-108,56,-179,146,-179v90,0,146,72,146,179v0,107,-56,178,-146,178v-90,0,-146,-71,-146,-178xm523,-166v0,56,23,110,70,110v47,0,70,-54,70,-110v0,-56,-23,-110,-70,-110v-47,0,-70,54,-70,110xm239,13r-75,0r390,-729r72,0","w":804},"&":{"d":"275,-103v44,1,98,-10,128,-41r-145,-177v-45,28,-84,52,-87,111v-3,62,40,105,104,107xm312,-605v-39,-2,-59,31,-59,61v0,28,25,53,43,74v32,-18,68,-36,68,-71v0,-30,-16,-63,-52,-64xm312,-711v103,0,169,70,167,170v-2,81,-50,115,-111,158r97,119v6,-17,9,-54,9,-70r116,0v-3,59,-14,122,-36,177r130,158r-160,0r-48,-56v-58,47,-118,66,-182,66v-129,0,-238,-82,-238,-216v0,-92,56,-159,128,-203v0,-3,-3,-5,-4,-6v-30,-38,-52,-79,-51,-130v4,-104,79,-167,183,-167","w":679},"'":{"d":"65,-700r88,0r-7,214r-76,0","w":218},"(":{"d":"352,-701r0,84v-117,78,-165,248,-165,381v0,140,43,308,165,390r0,88v-206,-76,-291,-268,-286,-478v5,-205,82,-392,286,-465","w":367},")":{"d":"15,-617r0,-84v204,73,281,260,286,465v5,210,-80,402,-286,478r0,-88v122,-82,165,-250,165,-390v0,-133,-48,-303,-165,-381","w":367},"*":{"d":"210,-340r14,-147r-118,79r-41,-75r129,-53r-129,-54r41,-75r118,80r-13,-149r85,0r-13,149r117,-80r42,75r-128,54r128,53r-42,75r-117,-79r12,147r-85,0","w":507},"+":{"d":"343,-113r-89,0r0,-188r-189,0r0,-91r189,0r0,-189r89,0r0,189r189,0r0,91r-189,0r0,188","w":597},",":{"d":"45,162r79,-295r137,0r-130,295r-86,0","w":346},"-":{"d":"416,-209r-351,0r0,-107r351,0r0,107","w":481},".":{"d":"229,-133r0,133r-134,0r0,-133r134,0","w":324},"\/":{"d":"79,13r-74,0r209,-728r76,0","w":295},"0":{"d":"45,-350v0,-219,118,-361,297,-361v179,0,298,142,298,361v0,219,-119,361,-298,361v-179,0,-297,-142,-297,-361xm175,-349v0,152,65,248,166,248v102,0,167,-96,167,-248v0,-152,-65,-249,-167,-249v-102,0,-166,97,-166,249","w":685},"1":{"d":"330,0r-127,0r0,-576r-104,92r-74,-83r116,-98v29,-25,64,-42,103,-42v61,0,86,39,86,95r0,612","w":425},"2":{"d":"450,-110r0,110r-435,0r0,-82r272,-342v17,-23,33,-55,33,-79v0,-121,-185,-117,-250,-56r-15,0r0,-115v119,-56,264,-54,348,35v71,76,59,208,-4,279r-216,250r267,0","w":496},"3":{"d":"31,-141v46,26,109,44,165,44v58,0,125,-43,125,-109v0,-104,-113,-113,-216,-109r0,-109r36,0v59,0,146,-5,146,-86v0,-60,-59,-93,-110,-93v-45,0,-96,8,-133,34r-16,0r0,-112v52,-19,98,-30,153,-30v113,0,236,61,236,190v0,57,-36,125,-97,144v69,21,132,89,132,171v0,209,-255,262,-437,181r0,-116r16,0","w":502},"4":{"d":"338,-557r-190,285r190,0r0,-285xm465,-609r0,337r71,0r0,115r-71,0r0,157r-127,0r0,-157r-259,0v-49,1,-99,-51,-64,-104r265,-399v23,-35,62,-47,100,-47v56,0,85,47,85,98","w":561},"5":{"d":"184,-590r0,123v58,0,117,6,168,33v74,39,118,116,118,204v0,153,-136,241,-284,241v-51,0,-100,-16,-151,-35r0,-122r16,0v44,31,104,44,156,44v79,0,135,-49,135,-133v0,-94,-92,-124,-178,-124r-107,0r0,-341r392,0r0,110r-265,0","w":515},"6":{"d":"514,-557r-16,0v-38,-28,-94,-44,-143,-44v-82,0,-145,60,-168,138v28,-27,81,-40,132,-40v58,0,119,25,160,66v95,97,98,273,0,375v-46,47,-111,73,-180,73v-82,0,-159,-41,-204,-117v-41,-68,-50,-146,-49,-224v2,-84,20,-170,65,-243v55,-89,140,-137,245,-138v61,0,104,14,158,42r0,112xm291,-392v-79,4,-116,71,-116,152v0,78,58,148,138,141v151,-13,145,-302,-22,-293","w":591},"7":{"d":"39,0r252,-590r-286,0r0,-110r336,0v74,-5,107,54,78,123r-242,577r-138,0","w":448},"8":{"d":"319,-711v128,0,229,73,231,196v1,61,-30,120,-94,139v78,21,126,89,126,167v0,149,-130,220,-260,220v-132,0,-267,-78,-267,-218v0,-78,47,-148,128,-169v-62,-16,-96,-85,-95,-139v2,-129,110,-196,231,-196xm214,-509v0,57,47,95,105,95v58,0,105,-38,105,-95v0,-62,-47,-95,-105,-95v-58,0,-105,33,-105,95xm184,-209v0,73,59,113,134,113v75,0,135,-40,135,-113v0,-68,-60,-114,-135,-114v-75,0,-134,46,-134,114","w":637},"9":{"d":"78,-143r16,0v38,28,94,44,143,44v82,0,145,-60,168,-138v-28,27,-81,40,-132,40v-58,0,-119,-25,-160,-66v-95,-97,-98,-273,0,-375v46,-47,111,-73,180,-73v82,0,159,41,204,117v41,68,50,146,49,224v-2,84,-20,170,-65,243v-55,89,-140,137,-245,138v-61,0,-104,-14,-158,-42r0,-112xm301,-308v79,-4,116,-71,116,-152v0,-78,-58,-148,-138,-141v-151,13,-145,302,22,293","w":591},":":{"d":"229,-133r0,133r-134,0r0,-133r134,0xm229,-524r0,134r-134,0r0,-134r134,0","w":324},";":{"d":"45,162r79,-295r137,0r-130,295r-86,0xm261,-524r0,134r-134,0r0,-134r134,0","w":346},"<":{"d":"504,-495r-321,144r321,145r0,100r-439,-198r0,-91r439,-200r0,100","w":569},"=":{"d":"533,-396r-468,0r0,-90r468,0r0,90xm533,-214r-468,0r0,-90r468,0r0,90","w":598},">":{"d":"386,-351r-321,-144r0,-100r439,200r0,91r-439,198r0,-100","w":569},"?":{"d":"241,-167r-117,0v1,-78,-7,-140,26,-195v26,-44,61,-58,104,-82v30,-17,56,-44,56,-81v0,-51,-56,-69,-98,-69v-49,0,-101,18,-137,50r-20,0r0,-114v93,-60,222,-78,314,-7v44,34,68,82,68,138v0,62,-31,119,-79,152v-29,20,-71,34,-94,56v-36,36,-19,92,-23,152xm245,-125r0,125r-125,0r0,-125r125,0","w":497},"@":{"d":"425,-146v-1,43,30,57,68,57v34,0,70,-13,101,-31r0,-100v-39,7,-80,12,-117,19v-30,6,-52,19,-52,55xm916,0r-321,0r0,-30v-33,30,-78,42,-121,42v-92,0,-160,-55,-160,-151v0,-71,44,-130,130,-144r151,-25v-4,-46,-73,-59,-104,-59v-38,0,-87,10,-121,28r-14,0r0,-104v139,-43,343,-35,343,134r0,252r171,0v26,-52,39,-111,39,-173v0,-222,-134,-402,-376,-402v-242,0,-402,180,-402,402v0,220,150,395,402,400v55,2,110,-7,157,-24r29,63v-55,22,-120,31,-184,29v-296,-6,-470,-210,-470,-468v0,-259,186,-469,470,-469v283,0,442,210,442,469v0,81,-20,158,-61,230","w":1042},"A":{"d":"337,-544r-94,262r188,0xm5,0r242,-646v14,-38,53,-62,93,-62v42,0,78,25,92,62r245,646r-143,0r-60,-163r-274,0r-61,163r-134,0","w":682},"B":{"d":"90,0r0,-564v0,-75,60,-136,136,-136v105,0,190,-16,270,34v55,34,88,90,88,152v0,60,-26,122,-95,139v80,21,127,73,127,163v0,53,-17,99,-53,139v-57,63,-139,73,-219,73r-254,0xm477,-220v0,-121,-141,-86,-253,-92r0,192v117,-7,253,35,253,-100xm224,-545r0,121r96,0v55,0,127,0,127,-78v0,-65,-45,-78,-124,-78r-68,0v-18,0,-31,15,-31,35","w":671},"C":{"d":"135,-606v102,-118,281,-128,436,-69r0,128r-16,0v-102,-50,-246,-68,-319,24v-37,46,-52,114,-52,173v0,59,15,129,54,175v74,87,216,73,318,22r18,0r0,127v-146,56,-313,54,-420,-49v-77,-75,-109,-174,-109,-279v0,-88,29,-181,90,-252","w":599},"D":{"d":"225,-546r0,423v104,-4,196,19,257,-48v44,-48,44,-120,44,-180v0,-51,-5,-116,-31,-159v-50,-81,-134,-65,-238,-67v-18,0,-32,14,-32,31xm226,-700v175,0,301,1,380,122v43,66,59,147,59,222v0,90,-20,180,-72,250v-105,142,-290,99,-503,106r0,-565v0,-74,61,-135,136,-135","w":708},"E":{"d":"90,0r0,-565v0,-74,60,-135,135,-135r350,0r0,122r-318,0v-17,0,-32,14,-32,31r0,120r259,0r0,117r-259,0r0,188r350,0r0,122r-485,0","w":590},"F":{"d":"90,-565v0,-74,61,-135,136,-135r351,0r0,122r-320,0v-17,0,-32,14,-32,31r0,121r259,0r0,121r-259,0r0,305r-135,0r0,-565","w":582},"G":{"d":"414,-110v26,0,53,-3,76,-10r0,-135r-125,0r0,-120r260,0r0,352v-184,49,-381,61,-494,-74v-109,-130,-115,-334,-18,-480v97,-145,298,-162,477,-98r0,124r-17,0v-118,-53,-274,-62,-346,42v-30,43,-43,108,-43,160v0,148,78,239,230,239","w":690},"H":{"d":"524,-427r0,-273r133,0r0,700r-133,0r0,-305r-294,0r0,305r-135,0r0,-700r135,0r0,273r294,0","w":752},"I":{"d":"230,-700r0,700r-135,0r0,-700r135,0","w":325},"J":{"d":"115,-578r-78,0r0,-122r213,0r0,574v1,166,-68,260,-245,248r0,-122r32,0v66,-1,78,-39,78,-100r0,-478","w":340},"K":{"d":"230,-700r0,276r263,-276r174,0r-288,288r322,412r-171,0r-243,-321r-57,59r0,262r-135,0r0,-700r135,0","w":696},"L":{"d":"90,-137r0,-563r135,0r0,546v0,17,14,32,31,32r236,0r0,122r-264,0v-76,0,-138,-62,-138,-137","w":497},"M":{"d":"509,0r-132,0r-151,-462r-25,462r-121,0r32,-618v1,-48,39,-89,88,-90v47,-1,85,31,99,72r148,448r143,-448v14,-45,46,-71,94,-71v53,0,92,35,95,90r32,617r-132,0r-20,-471","w":891},"N":{"d":"176,-708v45,0,75,24,98,59r273,428r0,-479r122,0r0,700r-129,0r-323,-507r0,507r-122,0r0,-616v0,-47,31,-91,81,-92","w":764},"O":{"d":"46,-350v0,-219,138,-361,331,-361v193,0,332,142,332,361v0,219,-139,361,-332,361v-193,0,-331,-142,-331,-361xm185,-350v0,147,75,238,192,238v117,0,193,-91,193,-238v0,-132,-76,-239,-193,-239v-117,0,-192,92,-192,239","w":754},"P":{"d":"90,0r0,-564v0,-75,61,-136,136,-136v103,0,181,-12,263,26v74,34,107,116,107,194v0,74,-26,144,-93,185v-78,48,-167,42,-278,42r0,253r-135,0xm225,-548r0,175r102,0v66,0,131,-26,131,-104v0,-91,-50,-104,-136,-104r-80,0v-17,0,-17,16,-17,33","w":631},"Q":{"d":"391,11v-207,5,-345,-137,-345,-361v0,-219,138,-361,331,-361v193,0,332,142,332,361v0,165,-80,287,-202,337v17,26,36,51,51,51v23,0,57,-37,70,-50r70,82v-39,37,-79,79,-138,79v-78,0,-132,-73,-169,-138xm185,-350v0,147,75,238,192,238v117,0,193,-91,193,-238v0,-132,-76,-239,-193,-239v-117,0,-192,92,-192,239","w":752},"R":{"d":"597,-480v0,92,-51,182,-140,207r195,273r-164,0r-175,-253r-88,0r0,253r-135,0r0,-564v0,-75,62,-136,138,-136v102,0,182,-11,262,26v73,34,107,116,107,194xm225,-548r0,175v112,1,234,14,234,-102v0,-80,-41,-106,-136,-106r-67,0v-17,0,-31,16,-31,33","w":670},"S":{"d":"290,-432v53,18,108,32,156,65v104,71,103,238,10,312v-115,91,-278,76,-422,30r0,-123r16,0v55,19,122,37,193,37v54,0,152,-15,151,-90v-1,-48,-47,-72,-90,-85v-53,-16,-108,-30,-159,-55v-72,-35,-114,-102,-114,-178v0,-55,28,-106,68,-139v99,-81,249,-55,380,-19r0,122r-18,0v-49,-19,-132,-34,-192,-34v-42,0,-107,15,-107,67v0,52,82,74,128,90","w":556},"T":{"d":"196,-578r-191,0r0,-122r520,0r0,122r-194,0r0,578r-135,0r0,-578","w":530},"U":{"d":"510,-261r0,-439r122,0r0,397v0,82,-4,152,-53,217v-53,70,-141,97,-221,97v-93,0,-182,-38,-230,-112v-39,-60,-43,-133,-43,-202r0,-397r135,0r0,438v0,37,3,77,26,107v27,35,78,44,118,44v46,0,92,-13,120,-52v21,-28,26,-63,26,-98","w":717},"V":{"d":"325,-169r180,-531r130,0r-224,643v-14,39,-47,65,-88,65v-42,0,-80,-25,-94,-65r-224,-643r144,0","w":640},"W":{"d":"517,-700r117,484r121,-484r127,0r-165,640v-10,39,-45,71,-88,69v-42,-1,-76,-32,-86,-72r-98,-402r-92,405v-9,38,-42,68,-84,69v-45,2,-82,-30,-93,-72r-166,-637r138,0r119,479r113,-479r137,0","w":892},"X":{"d":"615,-700r-203,314r252,386r-160,0r-175,-282r-176,282r-148,0r253,-389r-203,-311r158,0r126,207r130,-207r146,0","w":669},"Y":{"d":"456,-700r139,0r-227,432r0,268r-135,0r0,-268r-228,-432r152,0r149,305","w":600},"Z":{"d":"49,-700r369,0v39,0,85,16,102,55v13,31,14,66,-8,97r-300,426r316,0r0,122r-503,0r0,-86r345,-492r-321,0r0,-122","w":554},"[":{"d":"215,136r133,0r0,104r-253,0r0,-940r253,0r0,104r-133,0r0,732","w":363},"\\":{"d":"290,13r-74,0r-211,-728r76,0","w":295},"]":{"d":"15,136r133,0r0,-732r-133,0r0,-104r253,0r0,940r-253,0r0,-104","w":363},"^":{"d":"486,-368r-100,0r-111,-244r-110,244r-100,0r165,-362r91,0","w":551},"_":{"d":"634,225r-639,0r0,-90r639,0r0,90","w":629},"`":{"d":"176,-562r-111,-150r101,0r87,150r-77,0","w":318},"a":{"d":"169,-167v0,49,37,67,79,67v40,0,80,-16,113,-36r0,-118v-43,8,-87,12,-131,21v-35,7,-61,26,-61,66xm366,0r0,-48v-37,39,-90,60,-141,60v-104,0,-181,-70,-184,-172v-2,-96,70,-159,151,-170r172,-25v-4,-51,-84,-69,-119,-69v-45,0,-100,12,-139,31r-14,0r0,-116v158,-51,396,-38,396,151r0,358r-122,0","w":563},"b":{"d":"202,-131v0,16,14,29,30,29v59,0,105,4,142,-32v33,-32,36,-93,36,-136v0,-35,-5,-74,-23,-104v-37,-59,-114,-53,-185,-35r0,278xm286,11r-85,0v-70,0,-126,-57,-126,-127r0,-617r127,0r0,224v33,-21,66,-26,101,-26v73,0,139,28,183,81v43,53,55,117,55,184v0,58,-9,118,-39,169v-46,78,-124,110,-216,112"},"c":{"d":"40,-262v1,-156,98,-273,254,-273v58,0,107,13,161,35r0,113r-16,0v-33,-26,-92,-35,-137,-35v-97,-1,-131,69,-131,161v0,87,44,159,129,159v47,0,103,-9,141,-30r15,0r0,108v-53,26,-105,35,-158,35v-145,-2,-259,-115,-258,-273","w":486},"d":{"d":"379,-131r0,-278v-71,-18,-148,-24,-185,35v-18,30,-23,69,-23,104v0,43,3,104,36,136v37,36,83,32,142,32v16,0,30,-13,30,-29xm380,11v-144,0,-240,-10,-301,-112v-30,-50,-40,-111,-40,-169v0,-67,13,-131,56,-184v44,-53,110,-81,183,-81v35,0,68,5,101,26r0,-224r127,0r0,617v0,70,-56,127,-126,127"},"e":{"d":"287,-425v-66,0,-104,48,-110,108r213,0v-6,-66,-39,-108,-103,-108xm176,-212v13,83,89,117,162,115v45,-1,96,-8,138,-33r16,0r0,119v-136,37,-277,37,-372,-48v-106,-94,-104,-271,-22,-386v43,-60,112,-90,187,-90v95,0,171,44,208,132v26,64,28,127,26,191r-343,0","w":570},"f":{"d":"198,-524r133,0r0,110r-133,0r0,414r-127,0r0,-414r-56,0r0,-110r56,0v-4,-136,50,-210,181,-209v40,0,68,10,107,19r0,112r-17,0v-49,-29,-144,-34,-144,46r0,32","w":344},"g":{"d":"384,-391v0,-18,-14,-31,-30,-31v-62,0,-105,-3,-145,34v-34,32,-37,90,-38,135v0,35,7,77,26,107v38,60,114,52,187,35r0,-280xm511,-407r0,381v0,186,-93,265,-269,266v-56,0,-102,-14,-154,-33r0,-110r16,0v39,19,94,31,139,31v77,0,141,-45,141,-112r0,-30v-29,17,-63,25,-101,25v-69,0,-140,-25,-187,-81v-44,-52,-56,-116,-56,-183v0,-58,10,-119,40,-170v47,-79,129,-111,221,-112r81,0v70,0,129,58,129,128","w":586},"h":{"d":"207,-733r0,242v45,-25,98,-44,151,-44v106,0,185,81,185,194r0,341r-127,0r0,-330v0,-51,-23,-91,-79,-91v-42,0,-95,18,-130,41r0,380r-127,0r0,-733r127,0","w":618},"i":{"d":"207,-524r0,524r-127,0r0,-524r127,0xm208,-700r0,125r-128,0r0,-125r128,0","w":288},"j":{"d":"91,-414r0,440v0,76,-31,101,-106,101r0,113v158,0,233,-70,233,-235r0,-529r-192,0r0,110r65,0xm217,-700r0,125r-128,0r0,-125r128,0","w":298},"k":{"d":"207,-210r0,210r-127,0r0,-733r127,0r0,377r186,-168r178,0r-227,196r238,328r-157,0r-177,-245","w":587},"l":{"d":"202,-732r0,569v1,80,97,70,145,39r16,0r0,112v-38,13,-66,23,-107,23v-124,0,-181,-72,-181,-196r0,-547r127,0","w":353},"m":{"d":"619,0r0,-321v0,-41,-5,-97,-60,-95v-33,1,-61,28,-82,51r0,365r-125,0r0,-321v0,-40,-4,-95,-57,-95v-31,0,-66,22,-88,42r0,374r-127,0r0,-524r124,0r0,35v25,-25,65,-46,101,-46v54,-1,99,21,131,60v35,-32,81,-61,132,-61v110,0,178,86,178,197r0,339r-127,0","w":821},"n":{"d":"356,-535v110,0,187,78,187,195r0,340r-127,0r0,-327v1,-50,-23,-91,-79,-91v-42,0,-95,19,-130,43r0,375r-127,0r0,-524r123,0r0,34v48,-24,101,-45,153,-45","w":618},"o":{"d":"40,-262v0,-166,102,-273,251,-273v148,0,249,107,249,273v0,166,-100,273,-249,273v-149,0,-251,-107,-251,-273xm171,-262v0,98,48,160,119,160v72,0,119,-62,119,-160v0,-98,-48,-160,-119,-160v-71,0,-119,62,-119,160"},"p":{"d":"207,-392r0,278v71,18,148,24,185,-35v18,-30,23,-69,23,-104v0,-43,-3,-104,-36,-136v-37,-36,-83,-32,-142,-32v-16,0,-30,13,-30,29xm206,-534v144,0,240,10,301,112v30,50,39,111,39,169v0,67,-12,131,-55,184v-44,53,-110,81,-183,81v-35,0,-68,-5,-101,-26r0,254r-127,0r0,-647v0,-70,56,-127,126,-127","w":586},"q":{"d":"379,-114r0,-278v0,-16,-14,-29,-30,-29v-59,0,-105,-4,-142,32v-33,32,-36,93,-36,136v0,35,5,74,23,104v37,59,114,53,185,35xm295,-534r85,0v70,0,126,57,126,127r0,647r-127,0r0,-254v-33,21,-66,26,-101,26v-73,0,-139,-28,-183,-81v-43,-53,-55,-117,-55,-184v0,-58,9,-118,39,-169v46,-78,124,-110,216,-112"},"r":{"d":"374,-535r0,120r-17,0v-44,-18,-110,1,-150,26r0,389r-127,0r0,-524r123,0r0,34v53,-27,110,-45,171,-45","w":359},"s":{"d":"424,-161v0,178,-227,200,-379,146r0,-112r16,0v41,17,104,28,147,28v36,0,96,-7,96,-56v0,-27,-39,-40,-63,-49v-45,-17,-88,-30,-127,-50v-49,-25,-74,-79,-74,-131v0,-100,93,-151,180,-150v64,1,107,12,161,28r0,107r-17,0v-36,-14,-88,-24,-128,-24v-20,0,-76,4,-76,34v0,16,29,31,51,39v43,15,94,31,134,51v59,30,79,86,79,139","w":464},"t":{"d":"189,-414r0,247v0,45,31,65,69,65v27,0,52,-11,76,-21r20,0r0,111v-38,13,-70,23,-111,23v-124,0,-181,-70,-181,-194r0,-231r-57,0r0,-110r57,0r0,-123r127,0r0,123r134,0r0,110r-134,0","w":349},"u":{"d":"243,12v-110,0,-187,-85,-187,-195r0,-341r127,0r0,328v-1,50,23,91,79,91v42,0,95,-19,130,-43r0,-376r127,0r0,524r-123,0r0,-33v-48,24,-101,45,-153,45","w":585},"v":{"d":"265,-153r127,-371r120,0r-172,477v-14,35,-43,57,-80,57v-39,0,-71,-20,-84,-55r-171,-479r136,0","w":517},"w":{"d":"599,-48v-20,77,-147,76,-166,0r-57,-229r-56,227v-10,37,-43,60,-80,60v-38,0,-76,-22,-86,-58r-144,-476r128,0r103,355r92,-355r91,0r98,367r104,-367r119,0","w":755},"x":{"d":"204,-283r-170,-241r155,0r99,154r102,-154r137,0r-172,245r198,279r-155,0r-126,-194r-128,194r-139,0","w":558},"y":{"d":"293,-172r128,-352r118,0r-231,637v-41,108,-120,130,-252,127r0,-110v96,1,128,0,153,-69r24,-66r-228,-519r139,0","w":554},"z":{"d":"434,-490v15,24,9,58,-9,82r-216,298r235,0r0,110r-419,0r0,-72r251,-342r-239,0r0,-110r324,0v32,0,58,9,73,34","w":469},"{":{"d":"268,84v-4,34,22,53,53,54r78,0r0,102v-96,-1,-172,12,-224,-53v-22,-27,-29,-61,-29,-95r0,-218v0,-36,-15,-52,-53,-52r-78,0r0,-104r78,0v35,0,53,-18,53,-51r0,-218v2,-40,9,-78,39,-107v57,-53,124,-40,214,-42r0,104v-41,3,-91,-9,-117,10v-12,9,-14,25,-14,39r0,220v0,36,-26,81,-57,97v34,20,57,58,57,97r0,217","w":424},"|":{"d":"178,240r-83,0r0,-974r83,0r0,974","w":273},"}":{"d":"103,138v30,-1,53,-19,53,-54r0,-217v0,-39,23,-77,57,-97v-31,-16,-57,-61,-57,-97r0,-220v-1,-14,-2,-30,-14,-39v-26,-20,-76,-7,-117,-10r0,-104v90,2,158,-11,214,42v30,29,39,67,39,107r0,218v0,33,18,51,53,51r78,0r0,104r-78,0v-38,0,-53,16,-53,52r0,218v-2,34,-7,68,-29,95v-52,65,-128,52,-224,53r0,-102r78,0","w":424},"~":{"d":"205,-429v78,0,177,65,237,65v50,0,99,-37,129,-70r0,107v-39,37,-89,62,-142,62v-45,0,-82,-17,-118,-32v-113,-50,-165,-45,-246,34r0,-100v40,-45,88,-66,140,-66","w":636},"\u00a1":{"d":"226,176r-131,0r15,-530r100,0xm98,-398r0,-126r125,0r0,126r-125,0","w":321},"\u00a2":{"d":"276,-104r0,-316v-82,16,-105,83,-105,159v0,76,33,142,105,157xm40,-262v0,-151,92,-264,236,-272r0,-86r73,0r0,89v36,5,70,16,106,31r0,113r-16,0v-22,-18,-56,-27,-90,-32r0,314v33,-4,67,-13,92,-27r15,0r0,108v-36,18,-71,27,-107,32r0,88r-73,0r0,-86v-133,-13,-237,-120,-236,-272","w":486},"\u00a3":{"d":"161,-517v23,-158,202,-239,354,-168r0,119r-21,0v-74,-45,-187,-20,-200,68r-13,86r169,0r0,116r-188,0r-14,106v-4,25,-22,56,-43,68r310,0r0,122r-489,0r-1,-122v54,0,77,-2,86,-64r16,-110r-102,0r0,-116r119,0","w":530},"\u00a4":{"d":"577,-167r-64,63r-75,-72v-71,46,-163,46,-234,0r-74,72r-65,-63r75,-74v-47,-71,-47,-163,0,-236r-75,-73r65,-64r74,74v71,-47,163,-47,234,0r75,-74r64,64r-74,73v46,73,46,165,0,236xm230,-267v51,52,132,52,183,0v50,-51,51,-132,0,-184v-50,-52,-132,-52,-183,0v-51,52,-51,133,0,184","w":642},"\u00a5":{"d":"145,-435r-140,-265r152,0r149,305r150,-305r139,0r-139,265r96,0r0,78r-137,0r-32,59r169,0r0,78r-184,0r0,220r-135,0r0,-220r-185,0r0,-78r169,0r-31,-59r-138,0r0,-78r97,0","w":600},"\u00a6":{"d":"179,-379r-84,0r0,-354r84,0r0,354xm179,240r-84,0r0,-354r84,0r0,354","w":274},"\u00a7":{"d":"325,-279v-47,-28,-105,-39,-156,-64v-15,38,3,77,37,97v52,32,108,47,161,68v12,-41,-6,-79,-42,-101xm232,240v-64,0,-126,-15,-187,-36r0,-120r20,0v51,21,112,43,165,43v65,1,140,-34,140,-109v0,-42,-23,-66,-59,-82v-55,-26,-116,-39,-169,-71v-90,-53,-131,-183,-61,-277v-24,-34,-36,-81,-36,-122v2,-123,99,-200,218,-200v73,0,123,12,190,36r0,116r-22,0v-48,-22,-98,-38,-152,-38v-46,0,-114,26,-114,79v0,52,29,69,71,88v59,28,125,42,178,81v80,59,106,181,43,266v22,33,35,77,35,119v0,156,-120,227,-260,227","w":537},"\u00a8":{"d":"45,-582r0,-110r108,0r0,110r-108,0xm217,-582r0,-110r110,0r0,110r-110,0","w":372},"\u00a9":{"d":"425,-711v200,0,361,162,361,362v0,198,-161,360,-361,360v-199,0,-360,-162,-360,-360v0,-200,161,-362,360,-362xm425,-643v-162,0,-293,131,-293,294v0,162,131,292,293,292v163,0,295,-130,295,-292v0,-163,-132,-294,-295,-294xm304,-498v59,-69,163,-75,253,-41r0,75r-10,0v-59,-25,-142,-43,-185,13v-44,57,-43,147,1,202v42,53,126,43,185,12r10,0r0,76v-85,35,-180,32,-244,-29v-45,-43,-62,-101,-62,-163v0,-51,16,-102,52,-145","w":851},"\u00aa":{"d":"131,-464v0,35,27,43,56,43v28,0,51,-10,74,-23r0,-77v-29,4,-61,8,-90,14v-23,4,-40,15,-40,43xm181,-637v-28,0,-66,9,-94,22r-10,0r0,-79v108,-36,268,-32,268,102r0,240r-81,0r0,-30v-26,26,-59,40,-96,40v-75,-2,-125,-53,-122,-122v2,-61,44,-101,101,-109r115,-17v0,-38,-56,-47,-81,-47","w":421},"\u00ab":{"d":"343,-499r-162,238r162,239r-103,0r-175,-239r175,-238r103,0xm566,-499r-162,238r162,239r-103,0r-175,-239r175,-238r103,0","w":631},"\u00ac":{"d":"549,-205r-91,0r0,-190r-393,0r0,-91r484,0r0,281","w":624},"\u00ae":{"d":"427,-711v199,0,361,162,361,362v0,198,-162,360,-361,360v-200,0,-362,-162,-362,-360v0,-200,162,-362,362,-362xm427,-649v-165,0,-300,134,-300,300v0,165,135,300,300,300v166,0,300,-135,300,-300v0,-166,-134,-300,-300,-300xm573,-434v0,55,-31,105,-80,122r113,160r-96,0r-102,-149r-59,0r0,149r-77,0r0,-329v0,-44,35,-80,79,-80v62,0,110,-8,159,16v42,20,63,66,63,111xm349,-473r0,103v42,-1,84,5,115,-9v23,-11,29,-32,29,-56v0,-18,-6,-38,-20,-46v-29,-18,-66,-9,-106,-11v-10,0,-18,9,-18,19","w":853},"\u00af":{"d":"45,-624r0,-49r348,0r0,49r-348,0","w":438},"\u00b0":{"d":"65,-523v0,-102,81,-184,183,-184v102,0,184,82,184,184v0,102,-82,183,-184,183v-102,0,-183,-81,-183,-183xm144,-523v0,59,45,104,104,104v60,0,105,-45,105,-104v0,-60,-45,-105,-105,-105v-59,0,-104,45,-104,105","w":497},"\u00b1":{"d":"344,-124r-90,0r0,-189r-189,0r0,-90r189,0r0,-189r90,0r0,189r189,0r0,90r-189,0r0,189xm533,0r-468,0r0,-90r468,0r0,90","w":598},"\u00b2":{"d":"255,-410r0,58r-220,0r0,-40r137,-174v9,-11,18,-27,18,-40v2,-65,-98,-51,-127,-23r-9,0r0,-62v59,-31,132,-31,175,17v36,40,29,104,-3,141r-106,123r135,0","w":300},"\u00b3":{"d":"199,-457v0,-53,-58,-55,-110,-54r0,-55v41,0,93,2,93,-45v0,-56,-83,-52,-123,-26r-9,0r0,-60v81,-34,193,-11,196,83v0,29,-18,64,-48,71v39,12,64,46,65,86v2,103,-130,135,-218,92r0,-60r7,0v24,14,59,23,85,23v29,0,62,-22,62,-55","w":318},"\u00b4":{"d":"234,-712r-113,150r-76,0r86,-150r103,0","w":279},"\u00b5":{"d":"204,-14r0,254r-124,0r0,-764r124,0r0,325v0,52,24,92,80,92v42,0,95,-19,130,-43r0,-374r125,0r0,524r-122,0r0,-36v-46,26,-100,46,-151,46v-24,0,-49,-12,-62,-24","w":619},"\u00b6":{"d":"193,-700r362,0r0,87r-55,0r0,853r-91,0r0,-853r-99,0r0,853r-91,0r0,-563v-125,9,-214,-77,-214,-188v0,-105,84,-189,188,-189","w":575},"\u00b7":{"d":"229,-416r0,133r-134,0r0,-133r134,0","w":324},"\u00b8":{"d":"143,-45r70,13r-11,61v56,9,108,35,108,98v0,127,-158,140,-245,74r44,-59v23,16,50,25,73,25v28,0,50,-9,50,-38v0,-39,-74,-54,-111,-50","w":375},"\u00b9":{"d":"197,-352r-62,0r0,-287r-52,44r-38,-44r59,-51v13,-12,29,-22,50,-22v30,0,43,23,43,51r0,309","w":272},"\u00ba":{"d":"45,-527v0,-117,71,-185,165,-185v99,0,175,68,175,185v0,117,-71,184,-170,184v-99,0,-170,-67,-170,-184xm131,-527v0,68,28,109,83,109v55,0,85,-41,85,-109v0,-68,-30,-110,-85,-110v-56,0,-83,42,-83,110","w":430},"\u00bb":{"d":"450,-261r-162,-238r103,0r175,238r-175,239r-103,0xm227,-261r-162,-238r103,0r175,238r-175,239r-103,0","w":631},"\u00bc":{"d":"492,-282r-96,145r96,0r0,-145xm553,-308r0,171r36,0r0,58r-36,0r0,79r-61,0r0,-79r-131,0v-27,0,-50,-25,-32,-54r133,-202v10,-16,27,-23,46,-23v28,0,45,24,45,50xm153,13r-70,0r390,-729r69,0xm197,-352r-62,0r0,-287r-52,44r-38,-44r59,-51v13,-12,29,-22,50,-22v30,0,43,23,43,51r0,309","w":634},"\u00bd":{"d":"153,13r-70,0r390,-729r69,0xm197,-352r-62,0r0,-287r-52,44r-38,-44r59,-51v13,-12,29,-22,50,-22v30,0,43,23,43,51r0,309xm630,-58r0,58r-220,0r0,-40r137,-174v9,-11,18,-27,18,-40v2,-65,-98,-51,-127,-23r-9,0r0,-62v59,-31,132,-31,175,17v36,40,29,104,-3,141r-106,123r135,0","w":675},"\u00be":{"d":"527,-282r-96,145r96,0r0,-145xm588,-308r0,171r36,0r0,58r-36,0r0,79r-61,0r0,-79r-131,0v-27,0,-50,-25,-32,-54r133,-202v10,-16,27,-23,46,-23v28,0,45,24,45,50xm188,13r-70,0r390,-729r69,0xm199,-457v0,-53,-58,-55,-110,-54r0,-55v41,0,93,2,93,-45v0,-56,-83,-52,-123,-26r-9,0r0,-60v81,-34,193,-11,196,83v0,29,-18,64,-48,71v39,12,64,46,65,86v2,103,-130,135,-218,92r0,-60r7,0v24,14,59,23,85,23v29,0,62,-22,62,-55","w":669},"\u00bf":{"d":"256,-357r117,0v-1,78,7,140,-26,195v-26,44,-61,58,-104,82v-30,17,-56,44,-56,81v0,51,56,69,98,69v49,0,101,-18,137,-50r20,0r0,114v-93,60,-222,78,-314,7v-44,-34,-68,-82,-68,-138v0,-62,31,-119,79,-152v29,-20,71,-34,94,-56v36,-36,19,-92,23,-152xm252,-399r0,-125r125,0r0,125r-125,0","w":497},"\u00c0":{"d":"331,-544r-94,262r188,0xm-1,0r242,-646v14,-38,53,-62,93,-62v42,0,78,25,92,62r245,646r-143,0r-60,-163r-274,0r-61,163r-134,0xm358,-738r-111,-150r101,0r87,150r-77,0","w":682},"\u00c1":{"d":"331,-544r-94,262r188,0xm-1,0r242,-646v14,-38,53,-62,93,-62v42,0,78,25,92,62r245,646r-143,0r-60,-163r-274,0r-61,163r-134,0xm435,-888r-113,150r-76,0r86,-150r103,0","w":682},"\u00c2":{"d":"331,-544r-94,262r188,0xm-1,0r242,-646v14,-38,53,-62,93,-62v42,0,78,25,92,62r245,646r-143,0r-60,-163r-274,0r-61,163r-134,0xm203,-739r88,-150r100,0r87,150r-77,0r-61,-81r-60,81r-77,0","w":682},"\u00c3":{"d":"331,-544r-94,262r188,0xm-1,0r242,-646v14,-38,53,-62,93,-62v42,0,78,25,92,62r245,646r-143,0r-60,-163r-274,0r-61,163r-134,0xm225,-761r-65,-35v28,-48,65,-78,118,-79v28,0,53,7,77,21v18,11,31,25,55,25v26,0,36,-17,47,-38r65,35v-26,48,-59,79,-117,79v-24,0,-50,-6,-72,-18v-21,-11,-35,-26,-59,-26v-26,0,-36,16,-49,36","w":682},"\u00c4":{"d":"331,-544r-94,262r188,0xm-1,0r242,-646v14,-38,53,-62,93,-62v42,0,78,25,92,62r245,646r-143,0r-60,-163r-274,0r-61,163r-134,0xm200,-758r0,-110r108,0r0,110r-108,0xm372,-758r0,-110r110,0r0,110r-110,0","w":682},"\u00c5":{"d":"331,-544r-94,262r188,0xm-1,0r242,-646v14,-38,53,-62,93,-62v42,0,78,25,92,62r245,646r-143,0r-60,-163r-274,0r-61,163r-134,0xm340,-910v53,0,97,42,97,96v0,53,-44,95,-97,95v-54,0,-96,-42,-96,-95v0,-54,42,-96,96,-96xm340,-856v-23,0,-42,19,-42,42v0,24,19,42,42,42v24,0,42,-18,42,-42v0,-23,-18,-42,-42,-42","w":682},"\u00c6":{"d":"444,-570r-3,0r-169,301r172,0r0,-301xm449,-700r453,0r0,125r-292,0v-17,0,-31,14,-31,31r0,117r231,0r0,117r-231,0r0,185r323,0r0,125r-458,0r0,-149r-238,0r-84,149r-147,0r346,-625v25,-44,73,-75,128,-75","w":917},"\u00c7":{"d":"135,-606v102,-118,281,-128,436,-69r0,128r-16,0v-102,-50,-246,-68,-319,24v-37,46,-52,114,-52,173v0,59,15,129,54,175v74,87,216,73,318,22r18,0r0,127v-146,56,-313,54,-420,-49v-77,-75,-109,-174,-109,-279v0,-88,29,-181,90,-252xm367,-45r70,13r-11,61v56,9,108,35,108,98v0,127,-158,140,-245,74r44,-59v23,16,50,25,73,25v28,0,50,-9,50,-38v0,-39,-74,-54,-111,-50","w":599},"\u00c8":{"d":"90,0r0,-565v0,-74,60,-135,135,-135r350,0r0,122r-318,0v-17,0,-32,14,-32,31r0,120r259,0r0,117r-259,0r0,188r350,0r0,122r-485,0xm349,-738r-111,-150r101,0r87,150r-77,0","w":590},"\u00c9":{"d":"90,-565r0,565r485,0r0,-122r-350,0r0,-188r259,0r0,-117r-259,0r0,-120v0,-17,15,-31,32,-31r318,0r0,-122r-350,0v-75,0,-135,61,-135,135xm498,-888r-113,150r-76,0r86,-150r103,0","w":590},"\u00ca":{"d":"90,0r0,-565v0,-74,60,-135,135,-135r350,0r0,122r-318,0v-17,0,-32,14,-32,31r0,120r259,0r0,117r-259,0r0,188r350,0r0,122r-485,0xm207,-739r88,-150r100,0r87,150r-77,0r-61,-81r-60,81r-77,0","w":590},"\u00cb":{"d":"90,0r0,-565v0,-74,60,-135,135,-135r350,0r0,122r-318,0v-17,0,-32,14,-32,31r0,120r259,0r0,117r-259,0r0,188r350,0r0,122r-485,0xm224,-758r0,-110r108,0r0,110r-108,0xm396,-758r0,-110r110,0r0,110r-110,0","w":590},"\u00cc":{"d":"230,-700r0,700r-135,0r0,-700r135,0xm179,-738r-111,-150r101,0r87,150r-77,0","w":325},"\u00cd":{"d":"230,0r0,-700r-135,0r0,700r135,0xm257,-888r-113,150r-76,0r86,-150r103,0","w":325},"\u00ce":{"d":"230,-700r0,700r-135,0r0,-700r135,0xm25,-739r88,-150r100,0r87,150r-77,0r-61,-81r-60,81r-77,0","w":325},"\u00cf":{"d":"230,-700r0,700r-135,0r0,-700r135,0xm22,-758r0,-110r108,0r0,110r-108,0xm194,-758r0,-110r110,0r0,110r-110,0","w":325},"\u00d0":{"d":"235,-546r0,126r171,0r0,89r-171,0r0,208v104,-4,197,19,258,-48v44,-48,44,-120,44,-180v0,-51,-5,-116,-31,-159v-50,-81,-135,-65,-239,-67v-18,0,-32,14,-32,31xm100,0r0,-331r-85,0r0,-89r85,0r0,-145v0,-74,61,-135,136,-135v175,0,302,1,381,122v43,67,59,147,59,222v0,90,-20,180,-72,250v-106,142,-291,99,-504,106","w":719},"\u00d1":{"d":"176,-708v45,0,75,24,98,59r273,428r0,-479r122,0r0,700r-129,0r-323,-507r0,507r-122,0r0,-616v0,-47,31,-91,81,-92xm266,-761r-65,-35v28,-48,65,-78,118,-79v28,0,53,7,77,21v18,11,31,25,55,25v26,0,36,-17,47,-38r65,35v-26,48,-59,79,-117,79v-24,0,-50,-6,-72,-18v-21,-11,-35,-26,-59,-26v-26,0,-36,16,-49,36","w":764},"\u00d2":{"d":"46,-350v0,-219,138,-361,331,-361v193,0,332,142,332,361v0,219,-139,361,-332,361v-193,0,-331,-142,-331,-361xm185,-350v0,147,75,238,192,238v117,0,193,-91,193,-238v0,-132,-76,-239,-193,-239v-117,0,-192,92,-192,239xm394,-738r-111,-150r101,0r87,150r-77,0","w":754},"\u00d3":{"d":"46,-350v0,-219,138,-361,331,-361v193,0,332,142,332,361v0,219,-139,361,-332,361v-193,0,-331,-142,-331,-361xm185,-350v0,147,75,238,192,238v117,0,193,-91,193,-238v0,-132,-76,-239,-193,-239v-117,0,-192,92,-192,239xm510,-888r-113,150r-76,0r86,-150r103,0","w":754},"\u00d4":{"d":"46,-350v0,-219,138,-361,331,-361v193,0,332,142,332,361v0,219,-139,361,-332,361v-193,0,-331,-142,-331,-361xm185,-350v0,147,75,238,192,238v117,0,193,-91,193,-238v0,-132,-76,-239,-193,-239v-117,0,-192,92,-192,239xm239,-739r88,-150r100,0r87,150r-77,0r-61,-81r-60,81r-77,0","w":754},"\u00d5":{"d":"46,-350v0,-219,138,-361,331,-361v193,0,332,142,332,361v0,219,-139,361,-332,361v-193,0,-331,-142,-331,-361xm185,-350v0,147,75,238,192,238v117,0,193,-91,193,-238v0,-132,-76,-239,-193,-239v-117,0,-192,92,-192,239xm261,-761r-65,-35v28,-48,65,-78,118,-79v28,0,53,7,77,21v18,11,31,25,55,25v26,0,36,-17,47,-38r65,35v-26,48,-59,79,-117,79v-24,0,-50,-6,-72,-18v-21,-11,-35,-26,-59,-26v-26,0,-36,16,-49,36","w":754},"\u00d6":{"d":"46,-350v0,-219,138,-361,331,-361v193,0,332,142,332,361v0,219,-139,361,-332,361v-193,0,-331,-142,-331,-361xm185,-350v0,147,75,238,192,238v117,0,193,-91,193,-238v0,-132,-76,-239,-193,-239v-117,0,-192,92,-192,239xm236,-758r0,-110r108,0r0,110r-108,0xm408,-758r0,-110r110,0r0,110r-110,0","w":754},"\u00d7":{"d":"506,-199r-63,63r-147,-147r-147,147r-64,-65r147,-146r-147,-146r63,-63r146,146r147,-146r64,64r-146,146","w":591},"\u00d8":{"d":"751,-651r-82,82v38,58,60,133,60,219v0,219,-139,361,-332,361v-89,0,-166,-30,-224,-84r-78,78r-55,-56r83,-83v-36,-58,-57,-131,-57,-216v0,-219,138,-361,331,-361v88,0,165,29,222,82r78,-78xm224,-235r300,-299v-33,-34,-76,-55,-127,-55v-117,0,-192,92,-192,239v0,44,7,82,19,115xm567,-467r-301,301v33,35,78,54,131,54v117,0,193,-91,193,-238v0,-43,-8,-82,-23,-117","w":791},"\u00d9":{"d":"510,-261r0,-439r122,0r0,397v0,82,-4,152,-53,217v-53,70,-141,97,-221,97v-93,0,-182,-38,-230,-112v-39,-60,-43,-133,-43,-202r0,-397r135,0r0,438v0,37,3,77,26,107v27,35,78,44,118,44v46,0,92,-13,120,-52v21,-28,26,-63,26,-98xm375,-738r-111,-150r101,0r87,150r-77,0","w":717},"\u00da":{"d":"510,-700r0,439v0,35,-5,70,-26,98v-28,39,-74,52,-120,52v-40,0,-91,-9,-118,-44v-23,-30,-26,-70,-26,-107r0,-438r-135,0r0,397v0,69,4,142,43,202v94,141,341,155,451,15v50,-64,53,-135,53,-217r0,-397r-122,0xm479,-888r-113,150r-76,0r86,-150r103,0","w":717},"\u00db":{"d":"510,-261r0,-439r122,0r0,397v0,82,-4,152,-53,217v-53,70,-141,97,-221,97v-93,0,-182,-38,-230,-112v-39,-60,-43,-133,-43,-202r0,-397r135,0r0,438v0,37,3,77,26,107v27,35,78,44,118,44v46,0,92,-13,120,-52v21,-28,26,-63,26,-98xm221,-739r88,-150r100,0r87,150r-77,0r-61,-81r-60,81r-77,0","w":717},"\u00dc":{"d":"510,-261r0,-439r122,0r0,397v0,82,-4,152,-53,217v-53,70,-141,97,-221,97v-93,0,-182,-38,-230,-112v-39,-60,-43,-133,-43,-202r0,-397r135,0r0,438v0,37,3,77,26,107v27,35,78,44,118,44v46,0,92,-13,120,-52v21,-28,26,-63,26,-98xm217,-758r0,-110r108,0r0,110r-108,0xm389,-758r0,-110r110,0r0,110r-110,0","w":717},"\u00dd":{"d":"456,-700r139,0r-227,432r0,268r-135,0r0,-268r-228,-432r152,0r149,305xm394,-888r-113,150r-76,0r86,-150r103,0","w":600},"\u00de":{"d":"227,0r-132,0r0,-700r132,0r0,126v98,2,171,-11,248,27v138,68,147,296,15,379v-78,49,-157,40,-263,41r0,127xm227,-454r0,208v63,-2,122,7,168,-16v38,-19,49,-53,49,-95v0,-29,-9,-65,-34,-80v-50,-31,-114,-13,-183,-17","w":618},"\u00df":{"d":"259,-446v61,1,114,-14,114,-92v0,-43,-20,-82,-82,-83v-52,-1,-89,42,-89,97r0,524r-127,0r0,-532v2,-55,20,-114,62,-151v41,-36,104,-51,158,-51v108,0,210,64,210,194v0,65,-47,128,-97,143v85,28,122,101,122,187v0,145,-140,252,-294,214r0,-110v22,-2,37,7,55,6v68,-2,108,-51,108,-120v0,-78,-68,-115,-140,-114r0,-112","w":570},"\u00e0":{"d":"169,-167v0,49,37,67,79,67v40,0,80,-16,113,-36r0,-118v-43,8,-87,12,-131,21v-35,7,-61,26,-61,66xm366,0r0,-48v-37,39,-90,60,-141,60v-104,0,-181,-70,-184,-172v-2,-96,70,-159,151,-170r172,-25v-4,-51,-84,-69,-119,-69v-45,0,-100,12,-139,31r-14,0r0,-116v158,-51,396,-38,396,151r0,358r-122,0xm298,-562r-111,-150r101,0r87,150r-77,0","w":563},"\u00e1":{"d":"169,-167v0,-40,26,-59,61,-66v44,-9,88,-13,131,-21r0,118v-33,20,-73,36,-113,36v-42,0,-79,-18,-79,-67xm366,-48r0,48r122,0r0,-358v-7,-188,-239,-202,-396,-151r0,116r14,0v39,-19,94,-31,139,-31v35,0,115,18,119,69r-172,25v-81,11,-153,74,-151,170v3,102,80,172,184,172v51,0,104,-21,141,-60xm376,-712r-113,150r-76,0r86,-150r103,0","w":563},"\u00e2":{"d":"169,-167v0,49,37,67,79,67v40,0,80,-16,113,-36r0,-118v-43,8,-87,12,-131,21v-35,7,-61,26,-61,66xm366,0r0,-48v-37,39,-90,60,-141,60v-104,0,-181,-70,-184,-172v-2,-96,70,-159,151,-170r172,-25v-4,-51,-84,-69,-119,-69v-45,0,-100,12,-139,31r-14,0r0,-116v158,-51,396,-38,396,151r0,358r-122,0xm144,-563r88,-150r100,0r87,150r-77,0r-61,-81r-60,81r-77,0","w":563},"\u00e3":{"d":"169,-167v0,49,37,67,79,67v40,0,80,-16,113,-36r0,-118v-43,8,-87,12,-131,21v-35,7,-61,26,-61,66xm366,0r0,-48v-37,39,-90,60,-141,60v-104,0,-181,-70,-184,-172v-2,-96,70,-159,151,-170r172,-25v-4,-51,-84,-69,-119,-69v-45,0,-100,12,-139,31r-14,0r0,-116v158,-51,396,-38,396,151r0,358r-122,0xm165,-585r-65,-35v28,-48,65,-78,118,-79v28,0,53,7,77,21v18,11,31,25,55,25v26,0,36,-17,47,-38r65,35v-26,48,-59,79,-117,79v-24,0,-50,-6,-72,-18v-21,-11,-35,-26,-59,-26v-26,0,-36,16,-49,36","w":563},"\u00e4":{"d":"169,-167v0,49,37,67,79,67v40,0,80,-16,113,-36r0,-118v-43,8,-87,12,-131,21v-35,7,-61,26,-61,66xm366,0r0,-48v-37,39,-90,60,-141,60v-104,0,-181,-70,-184,-172v-2,-96,70,-159,151,-170r172,-25v-4,-51,-84,-69,-119,-69v-45,0,-100,12,-139,31r-14,0r0,-116v158,-51,396,-38,396,151r0,358r-122,0xm140,-582r0,-110r108,0r0,110r-108,0xm312,-582r0,-110r110,0r0,110r-110,0","w":563},"\u00e5":{"d":"169,-167v0,-40,26,-59,61,-66v44,-9,88,-13,131,-21r0,118v-33,20,-73,36,-113,36v-42,0,-79,-18,-79,-67xm366,-48r0,48r122,0r0,-358v-7,-188,-239,-202,-396,-151r0,116r14,0v39,-19,94,-31,139,-31v35,0,115,18,119,69r-172,25v-81,11,-153,74,-151,170v3,102,80,172,184,172v51,0,104,-21,141,-60xm281,-734v53,0,97,42,97,96v0,53,-44,95,-97,95v-54,0,-96,-42,-96,-95v0,-54,42,-96,96,-96xm281,-680v-23,0,-42,19,-42,42v0,24,19,42,42,42v24,0,42,-18,42,-42v0,-23,-18,-42,-42,-42","w":563},"\u00e6":{"d":"337,-250v-67,15,-167,3,-168,83v0,49,37,67,79,67v40,0,80,-16,113,-36v-16,-35,-23,-73,-24,-114xm430,-468v42,-51,101,-67,152,-67v95,0,171,44,208,132v26,64,28,127,26,191r-343,0v13,83,89,117,162,115v45,-1,96,-8,138,-33r16,0r0,119v-135,37,-270,35,-363,-50v-44,35,-121,72,-201,73v-104,1,-181,-70,-184,-172v-2,-96,70,-159,151,-170r172,-25v-4,-51,-84,-69,-119,-69v-45,0,-100,12,-139,31r-14,0r0,-116v117,-35,259,-46,338,41xm584,-425v-66,0,-104,48,-110,108r213,0v-6,-66,-39,-108,-103,-108","w":867},"\u00e7":{"d":"40,-262v1,-156,98,-273,254,-273v58,0,107,13,161,35r0,113r-16,0v-33,-26,-92,-35,-137,-35v-97,-1,-131,69,-131,161v0,87,44,159,129,159v47,0,103,-9,141,-30r15,0r0,108v-53,26,-105,35,-158,35v-145,-2,-259,-115,-258,-273xm282,-45r70,13r-11,61v56,9,108,35,108,98v0,127,-158,140,-245,74r44,-59v23,16,50,25,73,25v28,0,50,-9,50,-38v0,-39,-74,-54,-111,-50","w":486},"\u00e8":{"d":"287,-425v-66,0,-104,48,-110,108r213,0v-6,-66,-39,-108,-103,-108xm176,-212v13,83,89,117,162,115v45,-1,96,-8,138,-33r16,0r0,119v-136,37,-277,37,-372,-48v-106,-94,-104,-271,-22,-386v43,-60,112,-90,187,-90v95,0,171,44,208,132v26,64,28,127,26,191r-343,0xm302,-562r-111,-150r101,0r87,150r-77,0","w":570},"\u00e9":{"d":"287,-425v-66,0,-104,48,-110,108r213,0v-6,-66,-39,-108,-103,-108xm176,-212v13,83,89,117,162,115v45,-1,96,-8,138,-33r16,0r0,119v-136,37,-277,37,-372,-48v-106,-94,-104,-271,-22,-386v43,-60,112,-90,187,-90v95,0,171,44,208,132v26,64,28,127,26,191r-343,0xm403,-712r-113,150r-76,0r86,-150r103,0","w":570},"\u00ea":{"d":"287,-425v-66,0,-104,48,-110,108r213,0v-6,-66,-39,-108,-103,-108xm176,-212v13,83,89,117,162,115v45,-1,96,-8,138,-33r16,0r0,119v-136,37,-277,37,-372,-48v-106,-94,-104,-271,-22,-386v43,-60,112,-90,187,-90v95,0,171,44,208,132v26,64,28,127,26,191r-343,0xm147,-563r88,-150r100,0r87,150r-77,0r-61,-81r-60,81r-77,0","w":570},"\u00eb":{"d":"287,-425v-66,0,-104,48,-110,108r213,0v-6,-66,-39,-108,-103,-108xm176,-212v13,83,89,117,162,115v45,-1,96,-8,138,-33r16,0r0,119v-136,37,-277,37,-372,-48v-106,-94,-104,-271,-22,-386v43,-60,112,-90,187,-90v95,0,171,44,208,132v26,64,28,127,26,191r-343,0xm144,-582r0,-110r108,0r0,110r-108,0xm316,-582r0,-110r110,0r0,110r-110,0","w":570},"\u00ec":{"d":"207,-524r0,524r-127,0r0,-524r127,0xm161,-562r-111,-150r101,0r87,150r-77,0","w":287},"\u00ed":{"d":"207,-524r0,524r-127,0r0,-524r127,0xm238,-712r-113,150r-76,0r86,-150r103,0","w":287},"\u00ee":{"d":"207,-524r0,524r-127,0r0,-524r127,0xm6,-563r88,-150r100,0r87,150r-77,0r-61,-81r-60,81r-77,0","w":287},"\u00ef":{"d":"207,-524r0,524r-127,0r0,-524r127,0xm3,-582r0,-110r108,0r0,110r-108,0xm175,-582r0,-110r110,0r0,110r-110,0","w":287},"\u00f0":{"d":"278,-601r-146,53r-24,-66r104,-38v-52,-34,-106,-63,-153,-79r212,0v17,10,37,23,54,36r104,-37r26,67r-68,25v100,95,173,235,173,387v0,136,-98,262,-253,262v-93,0,-175,-42,-219,-119v-58,-103,-52,-238,18,-329v41,-53,106,-90,180,-90v34,0,64,7,78,20v-21,-32,-52,-64,-86,-92xm304,-419v-88,0,-128,80,-128,162v0,77,46,151,132,151v84,0,127,-78,127,-157v0,-78,-40,-156,-131,-156","w":616},"\u00f1":{"d":"356,-535v110,0,187,78,187,195r0,340r-127,0r0,-327v1,-50,-23,-91,-79,-91v-42,0,-95,19,-130,43r0,375r-127,0r0,-524r123,0r0,34v48,-24,101,-45,153,-45xm193,-585r-65,-35v28,-48,65,-78,118,-79v28,0,53,7,77,21v18,11,31,25,55,25v26,0,36,-17,47,-38r65,35v-26,48,-59,79,-117,79v-24,0,-50,-6,-72,-18v-21,-11,-35,-26,-59,-26v-26,0,-36,16,-49,36","w":618},"\u00f2":{"d":"40,-262v0,-166,102,-273,251,-273v148,0,249,107,249,273v0,166,-100,273,-249,273v-149,0,-251,-107,-251,-273xm171,-262v0,98,48,160,119,160v72,0,119,-62,119,-160v0,-98,-48,-160,-119,-160v-71,0,-119,62,-119,160xm307,-562r-111,-150r101,0r87,150r-77,0"},"\u00f3":{"d":"40,-262v0,-166,102,-273,251,-273v148,0,249,107,249,273v0,166,-100,273,-249,273v-149,0,-251,-107,-251,-273xm171,-262v0,98,48,160,119,160v72,0,119,-62,119,-160v0,-98,-48,-160,-119,-160v-71,0,-119,62,-119,160xm385,-712r-113,150r-76,0r86,-150r103,0"},"\u00f4":{"d":"40,-262v0,-166,102,-273,251,-273v148,0,249,107,249,273v0,166,-100,273,-249,273v-149,0,-251,-107,-251,-273xm171,-262v0,98,48,160,119,160v72,0,119,-62,119,-160v0,-98,-48,-160,-119,-160v-71,0,-119,62,-119,160xm153,-563r88,-150r100,0r87,150r-77,0r-61,-81r-60,81r-77,0"},"\u00f5":{"d":"40,-262v0,-166,102,-273,251,-273v148,0,249,107,249,273v0,166,-100,273,-249,273v-149,0,-251,-107,-251,-273xm171,-262v0,98,48,160,119,160v72,0,119,-62,119,-160v0,-98,-48,-160,-119,-160v-71,0,-119,62,-119,160xm174,-585r-65,-35v28,-48,65,-78,118,-79v28,0,53,7,77,21v18,11,31,25,55,25v26,0,36,-17,47,-38r65,35v-26,48,-59,79,-117,79v-24,0,-50,-6,-72,-18v-21,-11,-35,-26,-59,-26v-26,0,-36,16,-49,36"},"\u00f6":{"d":"40,-262v0,-166,102,-273,251,-273v148,0,249,107,249,273v0,166,-100,273,-249,273v-149,0,-251,-107,-251,-273xm171,-262v0,98,48,160,119,160v72,0,119,-62,119,-160v0,-98,-48,-160,-119,-160v-71,0,-119,62,-119,160xm149,-582r0,-110r108,0r0,110r-108,0xm321,-582r0,-110r110,0r0,110r-110,0"},"\u00f7":{"d":"365,-134r0,134r-133,0r0,-134r133,0xm365,-524r0,132r-133,0r0,-132r133,0xm532,-217r-467,0r0,-89r467,0r0,89","w":597},"\u00f8":{"d":"40,-47r60,-60v-24,-42,-38,-95,-38,-155v0,-166,102,-273,251,-273v64,0,118,20,160,55r49,-49r50,51r-52,52v27,44,42,100,42,164v0,166,-100,273,-249,273v-67,0,-125,-22,-168,-61r-54,54xm422,-328r-189,190v20,23,47,36,79,36v72,0,119,-62,119,-160v0,-25,-3,-46,-9,-66xm199,-206r186,-186v-20,-19,-44,-30,-73,-30v-71,0,-119,62,-119,160v0,20,2,39,6,56","w":612},"\u00f9":{"d":"243,12v-110,0,-187,-85,-187,-195r0,-341r127,0r0,328v-1,50,23,91,79,91v42,0,95,-19,130,-43r0,-376r127,0r0,524r-123,0r0,-33v-48,24,-101,45,-153,45xm309,-562r-111,-150r101,0r87,150r-77,0","w":585},"\u00fa":{"d":"243,12v-110,0,-187,-85,-187,-195r0,-341r127,0r0,328v-1,50,23,91,79,91v42,0,95,-19,130,-43r0,-376r127,0r0,524r-123,0r0,-33v-48,24,-101,45,-153,45xm387,-712r-113,150r-76,0r86,-150r103,0","w":585},"\u00fb":{"d":"243,12v-110,0,-187,-85,-187,-195r0,-341r127,0r0,328v-1,50,23,91,79,91v42,0,95,-19,130,-43r0,-376r127,0r0,524r-123,0r0,-33v-48,24,-101,45,-153,45xm155,-563r88,-150r100,0r87,150r-77,0r-61,-81r-60,81r-77,0","w":585},"\u00fc":{"d":"243,12v-110,0,-187,-85,-187,-195r0,-341r127,0r0,328v-1,50,23,91,79,91v42,0,95,-19,130,-43r0,-376r127,0r0,524r-123,0r0,-33v-48,24,-101,45,-153,45xm151,-582r0,-110r108,0r0,110r-108,0xm323,-582r0,-110r110,0r0,110r-110,0","w":585},"\u00fd":{"d":"293,-172r128,-352r118,0r-231,637v-41,108,-120,130,-252,127r0,-110v96,1,128,0,153,-69r24,-66r-228,-519r139,0xm371,-712r-113,150r-76,0r86,-150r103,0","w":554},"\u00fe":{"d":"200,-401r0,281v71,16,150,26,187,-34v20,-33,23,-72,23,-108v0,-36,-3,-74,-23,-106v-38,-59,-117,-50,-187,-33xm481,-449v41,53,54,117,54,180v0,69,-11,141,-54,196v-60,77,-186,107,-281,56r0,251r-120,0r0,-965r120,0r0,226v94,-52,220,-22,281,56","w":576},"\u00ff":{"d":"293,-172r128,-352r118,0r-231,637v-41,108,-120,130,-252,127r0,-110v96,1,128,0,153,-69r24,-66r-228,-519r139,0xm148,-582r0,-110r108,0r0,110r-108,0xm320,-582r0,-110r110,0r0,110r-110,0","w":554},"\u0152":{"d":"672,-700r303,0r0,125r-291,0v-18,0,-32,14,-32,31r0,117r232,0r0,117r-232,0r0,186r323,0r0,124r-456,0r0,-51v-112,99,-295,72,-385,-35v-61,-73,-88,-168,-88,-260v0,-97,20,-180,76,-254v54,-71,145,-111,225,-111v72,0,149,26,195,82v26,-49,58,-71,130,-71xm353,-112v131,0,166,-136,166,-244v0,-111,-44,-232,-169,-232v-127,0,-165,146,-165,245v0,107,51,231,168,231","w":990},"\u0153":{"d":"171,-262v0,98,48,160,119,160v72,0,119,-62,119,-160v0,-98,-48,-160,-119,-160v-71,0,-119,62,-119,160xm649,-425v-66,0,-104,48,-110,108r213,0v-6,-66,-39,-108,-103,-108xm475,-75v-44,62,-106,86,-184,86v-149,0,-251,-107,-251,-273v0,-166,102,-273,251,-273v72,0,139,30,183,86v96,-135,323,-106,381,46v25,64,28,127,26,191r-343,0v13,83,89,117,162,115v45,-1,96,-8,138,-33r16,0r0,119v-57,17,-105,22,-164,22v-74,0,-152,-18,-215,-86","w":932},"\u0178":{"d":"456,-700r139,0r-227,432r0,268r-135,0r0,-268r-228,-432r152,0r149,305xm159,-758r0,-110r108,0r0,110r-108,0xm331,-758r0,-110r110,0r0,110r-110,0","w":600},"\u02c6":{"d":"45,-563r88,-150r100,0r87,150r-77,0r-61,-81r-60,81r-77,0","w":365},"\u02dc":{"d":"110,-585r-65,-35v28,-48,65,-78,118,-79v28,0,53,7,77,21v18,11,31,25,55,25v26,0,36,-17,47,-38r65,35v-26,48,-59,79,-117,79v-24,0,-50,-6,-72,-18v-21,-11,-35,-26,-59,-26v-26,0,-36,16,-49,36","w":452},"\u2013":{"d":"510,-215r-505,0r0,-91r505,0r0,91","w":515},"\u2014":{"d":"978,-215r-973,0r0,-91r973,0r0,91","w":983},"\u2018":{"d":"266,-700r-74,281r-127,0r123,-281r78,0","w":331},"\u2019":{"d":"65,-419r74,-281r127,0r-123,281r-78,0","w":331},"\u201a":{"d":"65,148r74,-281r127,0r-123,281r-78,0","w":331},"\u201c":{"d":"459,-700r-74,281r-127,0r123,-281r78,0xm266,-700r-74,281r-127,0r123,-281r78,0","w":524},"\u201d":{"d":"65,-419r74,-281r127,0r-123,281r-78,0xm258,-419r74,-281r127,0r-123,281r-78,0","w":524},"\u201e":{"d":"65,148r74,-281r127,0r-123,281r-78,0xm258,148r74,-281r127,0r-123,281r-78,0","w":524},"\u2022":{"d":"65,-348v0,-52,43,-95,95,-95v52,0,95,43,95,95v0,52,-43,95,-95,95v-52,0,-95,-43,-95,-95","w":320},"\u2026":{"d":"229,-133r0,133r-134,0r0,-133r134,0xm533,-133r0,133r-134,0r0,-133r134,0xm837,-133r0,133r-134,0r0,-133r134,0","w":932},"\u2039":{"d":"343,-499r-162,238r162,239r-103,0r-175,-239r175,-238r103,0","w":408},"\u203a":{"d":"227,-261r-162,-238r103,0r175,238r-175,239r-103,0","w":408},"\u20ac":{"d":"582,-28v-140,74,-318,39,-395,-83v-26,-41,-43,-86,-53,-132r-94,0r16,-77r68,0v0,-41,0,-52,1,-62r-58,0r15,-78r52,0v10,-43,25,-85,49,-123v53,-83,133,-128,227,-128v68,0,133,16,189,46r-23,116r-20,0v-39,-27,-86,-39,-132,-39v-81,0,-130,61,-150,128r286,0r-16,78r-282,0v-2,21,-3,42,0,62r270,0r-14,77r-244,0v21,73,72,131,149,131v56,0,102,-16,137,-45r22,0r0,129","w":624},"\u2122":{"d":"625,-292r-75,0r-88,-267r-15,267r-71,0r19,-358v2,-27,20,-50,49,-52v28,-1,52,19,60,42r85,260r82,-260v10,-26,28,-42,55,-42v31,0,54,20,55,52r19,358r-77,0r-10,-273xm147,-625r0,333r76,0r0,-333r112,0r0,-74r-300,0r0,74r112,0","w":875},"\u00a0":{"w":301}}});
